
const float fj_s[] = {
    0,         456.25,   3,          -1,
    1384.5,    -7.25,    1000000000, -5786.5,
    1752,      0.015625, 0.03125,    -248562.75,
    -45786.5,  456,      34.03125,   45786.75,
    1752065,   107,      -45667.25,  -7,
    -347856.5, 356047.5, -1.0,       23.0625
};

const double fj_d[] = {
    0,         456.25,   3,          -1,
    1384.5,    -7.25,    1000000000, -5786.5,
    1752,      0.015625, 0.03125,    -248562.75,
    -45786.5,  456,      34.03125,   45786.75,
    1752065,   107,      -45667.25,  -7,
    -347856.5, 356047.5, -1.0,       23.0625
};

const float fk_s[] = {
    -4578.5, 456.25,   34.03125, 4578.75,
    175,     107,      -456.25,  -7.25,
    -3478.5, 356.5,    -1.0,     23.0625,
    0,       456.25,   3,        -1,
    1384.5,  -7,       100,      -5786.5,
    1752,    0.015625, 0.03125,  -248562.75
};

const double fk_d[] = {
    -45786.5,  456.25,   34.03125,   45786.75,
    1752065,   107,      -45667.25,  -7.25,
    -347856.5, 356047.5, -1.0,       23.0625,
    0,         456.25,   3,          -1,
    1384.5,    -7,       1000000000, -5786.5,
    1752,      0.015625, 0.03125,    -248562.75
};

const float fa_s[] = {
    -347856.5,  356047.5,  -1.0,       23.0625,
    1752,       0.015625,  0.03125,    -248562.75,
    1384.5,     -7.25,     1000000000, -5786.5,
    -347856.75, 356047.75, -1.0,       23.03125,
    0,          456.25,    3,          -1,
    -45786.5,   456,       34.03125,   45786.03125,
};

const double fa_d[] = {
    -347856.5,  356047.5,  -1.0,       23.0625,
    1752,       0.015625,  0.03125,    -248562.75,
    1384.5,     -7.25,     1000000000, -5786.5,
    -347856.75, 356047.75, -1.0,       23.03125,
    0,          456.25,    3,          -1,
    -45786.5,   456,       34.03125,   45786.03125,
};

const int fj_w[] = {
    0,          456,        3,          -1,
    0xffffffff, 356,        1000000000, -5786,
    1752,       24575,      10,         -248562,
    -45786,     456,        34,         45786,
    1752065,    107,        -45667,     -7,
    -347856,    0x80000000, 0xfffffff,  23,
};

const long fj_l[] = {
    18,         25,         3,          -1,
    0xffffffff, 356,        1000000,    -5786,
    -1,         24575,      10,         -125458,
    -486,       456,        34,         45786,
    0,          1700000,    -45667,     -7,
    -347856,    0x80000000, 0xfffffff,  23,
};

